0.34094248251484394
-0.6947616086407744
0.7012901245578329
-0.24272580247396935
-0.18583158440692937
-0.05921055367691186
-0.5504622968260431
0.4743461786527208
0.08778679141601597
-0.9390765642209693
-0.20822217667502518
0.23430614337314926
-0.3271911224122932
0.6953148624162924
-0.8553945664834108
-0.5710622141703965
-0.2578953402952695
0.8440598990504249
-0.9346311397721951
-0.3197168567422015
0.857211543671418
0.27516235466599204
0.10810631790081637
-0.842467804040322
-0.41941285619573754
-0.02298388815847585
-0.5939580022866044
0.0943692330050141
-0.8835745292166766
0.34073026390936456
-0.44091584152788976
0.9315273433554643
0.4787324497580503
-0.5524407004918348
-0.5522615244589739
-0.28264016732759867
0.43322198516812604
-0.9956949710232159
-0.09630240436128101
0.2771377479732877
-0.24573965772975814
-0.19148911660530032
-0.543990242977417
-0.8348430440907046
-0.37797064457709495
-0.04743943981189225
0.7449040159138531
0.9971875168286322
0.5680034237357527
0.08932940017062241
0.19959260784898003
0.6158669948366637
-0.2947153179270794
-0.6539492067920047
0.45615881720868545
-0.18603692172550534
0.9729686496425907
0.7836732290834894
-0.6070442067327209
0.14807609500125296
0.11465157931397063
-0.8044699473032915
0.9486176151262615
-0.6703423690503973
0.9761687372925791
0.2508840377931707
0.5966262547129026
-0.004671033200378316
-0.46961706813560244
0.17262145556646136
-0.8046577706008082
0.9465471313123182
-0.6367974813703434
0.9383756956176954
0.7190827801031816
0.8531192341717091
0.39886450765062875
0.1487201540779366
-0.719175688355943
0.6892716039706823
-0.3480964793345047
-0.7214965212974003
-0.1386975034805189
0.6149514448324902
-0.016683145577818914
-0.4482740746719014
-0.6590748948996892
0.9983606234916684
0.19681622190915515
0.6297212113919675
-0.2893629768767041
0.8279516590306539
0.6623712765637022
-0.9554812950634108
0.8074938565401923
0.4576695639923021
0.15197015050499707
0.5595793012893009
0.7661280806465898
-0.1139289700532451
-0.10583198337835453
-0.8934405729726387
0.3363309040799356
0.2793242439235897
-0.18871358300059327
-0.8661517578331066
0.818844705066464
0.7087394848903965
0.9083913649320232
0.6703535478742093
-0.6396273201891403
-0.04071804014958569
-0.056036945878733535
-0.6994254842511158
0.40159301443028084
-0.2832470679841288
-0.5290215553418378
0.2604576299157282
0.20474115476406074
-0.8788840421846493
-0.2784952949804287
-0.2176127198465745
0.8475457794374779
-0.4911765264574455
0.4132712619085295
0.12304461408511491
0.2347922978766781
-0.19172232785449816
0.6884774088236858
-0.8056146944215659
-0.9588621222277096
-0.5345151974493441
-0.7847886312356505
0.53702673332534
-0.8772370213246488
0.4303537073899115
-0.5265352286524456
0.15297356460819378
-0.4631749773881142
0.7575502538673575
