0.7672120301267451
-0.7551291022397946
-0.08969567419577866
-1.142477751729766
-0.9079344788778666
0.2641606375365635
-0.7480092100056625
0.12851052033717977
-1.704448420719393
-2.3614575894166236
0.7902118184126268
1.1636232665170358
1.3936862032935295
2.1446701438108797
1.672130696377926
1.0029256754166866
-0.5307666886345097
-1.7035550158906054
-0.5714501778783474
-0.9879307415625438
-1.4884697971059064
-1.1670865036758316
-0.6446464765679363
1.2431939900100828
2.1127422112182472
0.4140845017888612
-2.032288060852736
-1.2679743863972073
-0.16722751873099703
2.106460966973952
-2.010544890753589
-1.1179524929575746
0.2126961838690806
-1.4032022628428047
-0.26708352005664365
0.8353740686893426
-0.46116008887337717
2.415770296499486
-0.5097088893946203
-0.4867004407592733
-2.034781463358159
0.6383938509999695
-2.306377667086714
1.2945691676644866
0.8665044558310379
0.6061324515765851
1.927924985815502
2.515180933402184
-2.213112529888411
0.9255234012308061
-0.16632653073871856
-0.9469739625627667
2.567881956749848
2.6643215548283745
1.5175109480898474
2.5995221671853774
0.829666611940627
0.551301677321622
-1.0097613917499053
0.2772271932430731
2.872681423623427
-1.1434001796043893
2.0815652543704437
-0.8392600369313352
-2.3057777607713628
0.8561614109642102
-0.25739015321474246
-0.940924603232111
1.9471979069799863
-2.488832231163295
2.178748860970175
-0.5324977077600637
0.7927406033505099
1.7664038384265501
-0.7241138751589119
0.3209259451126145
-0.17232313142677563
-1.9268154925418677
-0.629743379352223
2.503991446848653
1.3219389868591613
0.3788737571597106
-0.14297875532947787
1.1816251743744322
0.2621409482772265
-1.8636493310447324
-0.17965416729574274
1.5823951117314163
0.41152670347375764
2.1250836070891514
0.12307269157743199
-0.04684860196207888
-1.7766392180094042
0.5595649179157659
2.2248845075726513
-0.8057957520269976
-0.13509861048905195
1.1652648292925425
0.4722617105848553
-0.4757551862052625
-0.7140776423791687
1.5002418689125652
-2.015372778881047
0.8029380903739027
0.03994025171604429
-2.018011676770564
0.12974856465899234
-2.34069558352564
2.3769246547575347
1.4443131380977414
0.8361753377760288
-1.2431655616500188
2.5912975510235423
1.361216545574999
-1.1765929175980596
2.4339461479755307
-2.2341575684774
-1.78877851979002
1.4709998299218034
-0.7592408646636637
-0.3397749484765283
-1.3692484275741652
1.9762594533339692
-0.2912320953587606
-0.29290635236690754
-0.8507971572752859
1.6632133956129793
-1.5967797486851956
-1.3790542857402721
-2.513851037090902
2.003045240868153
0.6235190162244939
-1.9203890611491912
0.05210752335450227
-0.3050201139989458
0.017719575920865618
1.7231408558231425
-1.6162646315577058
-2.0627053750932034
0.4635636949708718
-1.9496627485860025
1.6464362065915552
2.2607837203706094
-1.5001156188901132
-0.6188158257927127
2.2094119597952253
1.1010575075877516
1.0775297491725946
-2.437304995566365
-2.0574796686432726
-0.7511368732572171
0.6469743350469501
2.3147057120741406
-1.6229040222484044
-1.471884157160324
2.297553036666718
-0.03286069850242684
2.141101002126999
0.7613685775309554
-1.5134702901918542
2.4034695367342533
-1.6190501677621516
1.5501835311063061
-0.927489802775745
-0.85783048731227
1.59907003135785
-0.6162095289958859
-1.0272808300169622
-0.4493690712841057
2.0197272514837428
0.25187526189248005
2.2633379905362148
1.9384277800139111
-1.7781901913318237
-0.08019325359894616
0.2534981854406576
0.8592810983449953
2.363990607899012
-0.49522199946129614
1.2375113630164816
2.4524866917783186
0.21866517525457957
2.365391863525957
-2.493216615973507
0.7434875217079533
0.3350233314185811
0.2278974260038514
-0.09586481460150359
0.16686842523638198
-1.5553494468540074
2.038755475779546
1.5736692331928632
2.473291554016614
1.0796516002658783
-1.9951090086781358
1.4300240940796067
-1.5468036258312
-1.135632364874525
1.1456633517090327
-0.8722788174861651
1.0092177367848234
0.8343079656569921
1.5800235618690681
-0.3435337267288153
-0.3902340305116565
1.8689149900806536
2.5686981187672977
2.4553525495945534
0.45796314096090174
-0.49583109728813074
-0.8301899547074251
2.5194557361320915
-0.19954085248278422
1.3124030371515878
2.1167444315372705
1.430815082535333
0.10197578707963206
0.690232499144828
1.702161848515983
0.08731719173475784
0.9574478163618039
1.169411777019378
-0.27926721695314827
-0.17219490025229378
1.153303543436535
-0.5300688046440688
-1.3560090878957023
1.749580827483483
-0.1990878822636954
-1.7233338736888115
0.37136268359028407
-2.0514505840909156
-1.5288016982069395
-0.467685005275941
1.3122337738640975
0.024945903967475182
-0.6330973041222241
0.38816755843445944
-0.9758555063569762
-0.44548900957865
-1.936486144555843
2.411399650367833
0.059697470482862766
1.1265221843532347
2.400867668640344
-2.1104075459808547
-0.35745640743477375
-2.1039384494463715
-1.485908863420268
0.8084347045303495
1.4453023634220004
-1.8685293873342952
1.4843052685122875
0.9085423613040915
1.8858599888177001
1.8725093989930788
1.8487399095835346
-1.098491597308632
-2.4514968288844776
1.4799665148253118
-0.494580433646777
0.4058564210227668
-0.2092423246908103
1.7551366935557506
-0.10048104375614549
2.2346677419962178
1.0191138461917009
0.689429544286991
-0.04926813919667774
2.374616655938786
-0.665324675238032
-0.46671685773366817
-2.2491610370190998
-2.159345654300003
-0.9721827033868761
2.1945785871525088
0.8316040521286916
0.7990147765126896
-0.5433229794138632
2.028168923275837
-1.4761905428517803
1.296172164309873
0.5770263392191831
1.1392093341526206
0.991895284530622
0.7375948238914767
2.3623657759962744
-0.7639105820650832
-1.2780047305890994
1.3692094226733742
0.4606097650521184
-0.9395730087008294
0.6326669776536734
0.8456587242550969
0.46176834321909405
-1.4402415125055268
1.3137965627585928
-1.276844344639406
-1.7667883511709823
-1.5371631315011132
-0.23497059156467154
-2.5165212489022295
-0.776436407405641
0.732728810457377
0.6697457713702374
-0.012684522705799268
-2.438815878071579
-1.608044845010317
1.467565557772506
-0.9770393798300037
-0.5174269535062626
0.6793118498744217
0.37102354750778044
2.3813521131820456
-0.44467516164104587
-1.8819316862891295
-0.6865335768216567
-2.2399208353116262
0.714924351509971
0.6728848245321116
-0.26456680966254953
-1.9860673980175272
0.9090877906527703
-2.2213445876855835
0.16767457220360416
-1.2123201126470509
1.843116979179981
0.20598451777186055
-1.1426641708014815
-0.0266244625438889
1.7102012684483554
0.565024228694911
-2.174617076296807
-1.9621005179918247
-2.1481776017974434
-0.018558796038125755
2.392465342695663
-0.15342514270815666
-1.6463985574904811
-0.21444941599684103
0.9327101934965074
0.8421725875650318
1.9946782655241289
0.21481948284160415
0.5540226015563883
0.4985656393159184
1.890003485429611
1.2253968534408195
-0.3390181561313392
-0.12145302864177414
1.822788468369554
0.5847498719927003
-1.6112455271095527
1.5854542385129027
2.1828983633019075
2.2958499279642974
1.082565232722219
-0.06371353002623371
2.45881544594656
0.006550265213897403
0.9408176983885415
1.2921428912393071
-2.4851841293513908
0.2507546284590332
-0.26657795816769986
2.5023540474079375
1.3299789038750354
0.49062300151109184
-0.015451334756923894
2.157989047366335
1.5518378260215375
-0.157446120564706
2.398269309365031
1.6421442087440306
1.919928195339276
1.0185826046516382
1.7931388113295614
1.2761279828293524
-2.013504722982318
-1.333422442886757
-0.243934864894287
-0.2224316709971236
-2.5679500946291176
1.7349770767371027
-0.7673944612645729
1.3220436160303748
1.1467771831535198
-1.2885251890894696
1.1775876813199775
-2.791455623685532
-0.9127947520248676
-1.3767867571729793
1.4035510546571528
0.40056242396786873
1.6875065400784808
-0.35880633095954806
1.1254156720071642
-1.25523459412462
2.189441431505297
0.1908519663199979
-1.5667667268492549
2.314484001459851
0.7588860548100077
-2.3455521852189185
1.8851558138470714
0.32732271049718137
-1.1214641080518415
-1.9735265942394624
-1.9276734394252353
-1.3587547765801415
1.7174869040614162
-1.4539272396324279
2.215471906007349
0.15470496820335036
-0.3271173843940332
0.5269401652933036
-1.2431663467251541
-0.807731937506955
-1.6723801523239092
0.5506368350230201
0.8546667808068011
-1.252967517256211
1.928315533254919
1.0352875656699343
-0.5017871170695788
-0.6789517818366344
-0.043931110859251936
0.039109207904808485
2.183008065618358
1.7032396363691977
-1.138513675349317
-2.4431459671434124
-1.775042121599491
0.8744274837519542
1.6638363971385957
1.5257919514706118
2.0738018566834486
1.0295298552709296
-1.0890485664601584
-2.245668593034375
0.2072415173712715
-0.13489734798318634
-2.1621444016691735
-1.4288531909230993
1.7511988312193791
-0.785012650526824
-1.3299981890393338
1.2678350523201563
0.6090022005533503
0.39963062716608705
-1.920909977523395
-1.150919304083275
-1.017814550765717
1.9361197743679577
-2.3501001840839915
-2.4946776105761916
0.8316698612802953
0.31995489655888393
0.9333268046744244
-0.9955222992636704
2.5201351744395852
-2.491317454636821
1.8166947899571813
-1.507510007273596
-0.4136247156754161
-1.8313336489139718
1.06913849805224
0.05204647856430899
-2.458996244831985
-2.2564613146233814
0.11647426542729114
0.5664146063064254
-2.8217014930819504
-1.9606235618932897
-1.7132807332782782
-3.0275302111265807
-0.7187795182248702
-1.7101511145730215
-1.4777653094307395
1.0
0.040250874615086446
