-0.8611227790361466
0.7040864879709605
0.09144248169394587
-0.9383196012982589
-0.4465092985018799
0.680758818151731
-0.14678468882380247
0.02278031508973921
-0.6777467759266322
0.588273691231681
-0.1939600869213347
-0.8814259946380139
0.36416399940744104
0.8333842118871839
-0.3661303165176024
-0.35422481848539755
0.254607913751115
-0.241596987272926
0.42347906993370366
0.7745876625858448
-0.25562362749905754
0.20741735233521363
-0.9973006536178635
-0.6775819033550474
-0.9210011402361742
0.919013695986802
0.9264075640278191
-0.21130100940887475
0.1770387918436025
0.060514081551193755
0.5917740061662469
-0.13476160903792933
-0.9126622871643035
0.15818027030440307
-0.39314614919477897
-0.892783685630353
-0.43098197339906297
-0.8202061356769461
-0.7583154271330452
-0.5168499869833871
0.12438382133154069
-0.40952572134483045
-0.44136969756643474
0.11785473014251036
-0.6363127880459336
-0.17044986215887348
0.6487922939095068
0.7006279407453369
0.19205507461948623
0.8457508787998733
0.29388150881111064
0.7515904264932707
-0.017299688316464668
0.07994156598407565
-0.6719701892794745
-0.777681533679933
-0.3631310988276437
0.5990731497072534
0.9915911462367537
0.7526058334042558
-0.7701973527528969
-0.038022384775603824
-0.3509336656673101
-0.6866026827125844
-0.1966744179429334
-0.16291314652821054
-0.6141412954630068
0.9366380308602327
-0.21051002934949237
-0.6058896433108878
0.20364973952236087
0.7659866933830894
0.5360461969235768
-0.9438424539134784
0.8017597550802478
-0.24195684584256716
0.4533286850700915
0.32574530043155736
0.26193763940929937
-0.9780551609474089
-0.5865216682817991
0.08758321938111568
0.34660154221089834
-0.994111204551531
0.20674994384603873
0.04298359858353873
-0.42436941721819577
0.5223397824051093
0.09598137349449454
-0.25480561761390397
-0.23561365626289787
0.9493876602017945
0.8091293526365984
-0.9180915616550731
-0.7142807576386803
-0.14607936288501056
-0.32889567216856697
0.9906543919044124
0.961295828417382
-0.24701586462046898
-3.3996270156544384E-5
-0.3052725302583428
0.19265836374081502
-0.23710209571751695
-0.6211315240295867
-0.1882273590941581
0.7100079471092064
0.48140701311115386
-0.03602795423730276
-0.6859154787571415
-0.8532198074228319
-0.3936536355167388
-0.40013253554591355
0.5091426545661726
-0.4593403399696294
-0.48499980942036736
0.18788611551242695
-0.03914732831448897
0.8167593898126382
0.3115421609311668
0.48899724868668515
0.5864182241073066
0.3262674391277456
0.6956445451940358
0.34182298239974807
-0.9592788879665148
0.5939425250346904
0.4135472914546605
0.1376282298791105
0.9395394643474608
0.5704184754751758
0.023582880271000972
-0.6820282064044187
-0.525111225609804
0.8903539044295126
0.24135321451955916
0.6470328263623071
-0.4597783580044601
0.9050446946078661
0.2254607975723708
-0.9405448339375195
-0.3898233895512395
-0.41180904245105765
-0.17710292987940957
0.9958796117381365
-0.6909808178605013
0.806092554418522
-0.9861041461426023
0.3121624819982489
-0.14612872671852695
-0.10137859871786015
0.579261907849973
0.08460808041514234
-0.6267223745430357
-0.9650994949948373
-0.6411124551275729
-0.06763133456271553
-0.5213868573650653
-0.6123055037191096
-0.6216254131216785
-0.16050448427487507
-0.5947148163612843
0.813097308613296
0.5913806080469148
-0.11704786079611762
-0.4573595507451522
0.42717907616587136
0.018512695452600703
0.7592284863483152
-0.764062216859621
0.2388329947542387
-0.34070579778014665
0.5510235826997367
0.3707023340986846
0.82814106709412
-0.2880661284756345
0.7867921300742811
0.4392285742006816
0.9521557529504048
0.35632926195035974
-0.48022157023934486
0.5409536261403662
-0.08492752233954293
0.638939602269911
0.8894891992833929
-0.917124458078115
0.5573464040788931
0.8438668380562477
-0.5726145129760543
0.8231432358520003
-0.20161528917644245
-0.8573139354482981
-0.7700987923878859
-0.6596006562598504
0.8100237080607104
0.28626976663781534
-0.9542757008828961
-0.9865907688111197
0.1030787589747082
-0.3649454539812962
0.3106050081926113
0.1599634752618515
0.07683243198902989
-0.08010013271693839
0.21178335798719972
0.11099286569182487
0.911404612299302
0.7838940535984682
-0.024543825645524375
-0.3147098744100203
-0.9244728168759253
0.3761638322754357
-0.2554677255800901
0.7821837165622241
-0.82267766275902
0.051948246747241855
-0.3497473825128241
0.6239633025759932
-0.5967359648438408
-0.4211002458194182
-0.019920125042855785
-0.44319065028671334
0.37057749794517725
-0.8422202954576947
-0.29440936748510005
0.25843239540617335
0.8609127286470584
0.03641699169719392
0.0579310293378259
0.7025807904843409
-0.391796756618463
-0.4709964105229947
0.32472536026977106
-0.7049716340945429
0.08120190618491052
0.848501812886761
0.5911544547928402
0.22260750014374997
-0.9687381924722507
-0.6818566256840244
0.7592493920346988
0.24630512502017754
-0.5314901199592355
0.24870144116150827
0.8532744662314817
0.9213933603847095
0.6846376708084789
0.051421425027913914
0.3554004773617254
0.5420185391824397
-0.04188677105079708
-0.9978010419535184
0.1146985461213843
-0.015373185403476208
0.65769484704987
-0.5192038326197499
-0.7661878650570619
0.0640559061396202
-0.39729369705356543
-0.5204087142362783
-0.7385064012088611
-0.9819223633088909
0.7436113339048396
-0.29044081844395975
-0.9944810229940062
-0.6993723256005384
0.4940031133244285
-0.2731165959909432
-0.670676357873911
0.9909121202616464
0.37520222243416956
0.16180435470877508
0.40702931021494515
0.8150347674148966
-0.972764583208622
0.3520103236148828
0.08536056459013563
-0.9712597235597702
0.09504514454853696
-0.5339185327600469
-0.7627221184691355
-0.7756765494281546
-0.983641752620352
0.5482005228124216
0.29098166911951373
0.50170655010936
0.31771965830462645
0.8235467748487899
0.4792706912630196
-0.6168596876574262
-0.33222363753521167
0.07449220487405661
-0.22193474070765595
0.3529373597120755
-0.35802654000108447
-0.06907645671580243
0.989234935480193
0.9681000278247571
0.9204034673843766
0.5137155315062698
-0.028302204395169506
0.1126571640306615
-0.5293722169884985
-0.9714157813201099
-0.36391362745806854
0.15797837172071127
-0.8401331345435952
-0.37174672144145204
-0.007895481992168607
-0.4567135643154647
0.19603470843078563
-0.8559326456844687
0.27402614773919365
-0.3949571937497758
0.8146704558684179
-0.03138396564544288
0.3608330510021558
0.7088987325102232
-0.8986582931583285
-0.5689195116087309
0.3928332749642247
-0.1578720039197754
0.712077784405333
-0.301516141302111
-0.022109270662708402
-0.511725205552688
0.3661296840382382
-0.903604860524331
0.17570590048175028
-0.38812076171300336
-0.41911531862090046
-0.716643092650247
-0.28644419203291727
0.030555958902217073
-0.7023969213150314
-0.5109029568329737
0.19545148696055414
0.19480203377731797
-0.5549843270942407
0.8762316237166543
0.41557597074106334
-0.12473738598050321
0.8767631663054194
-0.8084640778767549
0.3703021362714214
0.5651318971459058
-0.8548586953737067
-0.8283118578448367
0.9400426189499373
0.9854459770389752
0.48181808646178226
0.529718523214685
0.1516377445760837
-0.27639756288004946
-0.1731071402015798
0.7722254747858421
-0.5660602275736248
-0.25948156118852017
0.7808696598679439
0.5837473321684277
-0.6562945352386171
-0.7505811536866236
-0.050178809696695525
-0.9364926880544633
-0.13413805069415807
-0.7006770418397978
-0.6877778711356519
0.7110769479570838
-0.41833605386694095
0.2888765006622953
-0.04336615948560385
-0.2686682072544486
0.7502133909190845
-0.40874547085827717
0.8226259718998947
-0.0345995808574886
-0.3367341310445122
0.48843800824537387
0.9230231266606057
0.5531373877585997
-0.4897985770290023
0.6932456192230689
0.9337681917796692
0.29397746440520134
0.42949009350241996
0.8800803857133517
0.008397156313184828
-0.40314283748272217
0.4249360363554324
-0.14957156248392423
0.2073225114457986
-0.10378173472230978
-0.6105631034984305
-0.773274253265086
0.027827180785415795
0.45993465163172065
0.605948553266469
0.8982867208469634
0.17887166681177025
-0.3736658874371743
-0.21520183401893678
0.8355668081541336
0.965522922347773
-0.31868732656396404
0.9484416854731423
-0.6558912803893371
-0.5689859765765468
-0.17713174827146183
-0.7107845537446891
0.34710103040035123
-0.24985125249298212
-0.04079095487192963
-0.4974163432969556
0.8655550993679297
0.2759674366240592
-0.5520812398970922
0.03783816599431278
0.5076849809677757
-0.8877066733703123
-0.6925096654029894
-0.7898414977133095
-0.5158469621965751
-0.8820172242886242
-0.08113318393766011
0.1823944195733136
0.4334216497209096
0.8444048911992228
0.783457117165052
0.4518856203394339
0.17153006909002455
0.0658793314099313
0.515421850309933
-0.33291293321950266
0.3731934522324858
-0.7164948984837782
-0.08014739640546131
-0.6492794464776379
-0.8538008808096813
-0.1339851897315092
0.7447968351287231
-0.5793725534261707
0.47865309856706295
-0.6630065277817079
-0.5060925033608052
-0.7235502670677498
-0.38129155194667197
0.7260025674392165
-0.4521740085315695
-0.3402804257271359
-0.4110149809865191
-0.12814491469307177
-0.2337662975499235
-0.5031080172741289
-0.7570322514776955
0.09948811089663501
-0.27116279882508243
-0.5006935228733058
0.5382498073013806
-0.2124154039596735
0.8223786663300932
-0.5789816005583504
0.03156395399887346
-0.9977018903019659
0.4920920449709134
0.564892297603083
0.9931242684968706
0.593137786164611
0.14985395752552977
-0.6206957758121745
-0.007121414175333518
0.9302734476051107
-0.5323945892294935
-0.19774831477049815
-0.671150780811846
-0.19177533177981831
-0.9165505297829337
-0.6133758124503395
0.24781925365255297
-0.050900102604797715
0.10915772704641324
-0.8201604152095243
-0.44880203011709585
0.009255529506104754
0.25164646306737204
-0.166995099318628
-0.11602165323733171
-0.9735521471262065
0.8473120191522607
0.4792138208804664
-0.2277221094520534
0.84025289125914
0.6569419220748633
0.5475454297086211
-0.6949695879917359
0.17673450020153303
0.8802483813828992
-0.13121756077271418
-0.7520227409438625
-0.19095840880581116
-0.4771038273103232
-0.8191800303660559
-0.6668182817174262
0.48882041689041955
-0.014771833016892888
-0.5438106776276397
-0.5151295359767538
0.18903015867785045
0.540716866691378
0.35107412739998556
-0.17751615408157773
0.6069532201231704
0.23350083161441382
-0.48535048141780956
-0.5756067895432309
0.8468950201296193
0.6481915529065192
-0.5004722382725542
0.04082424956881425
0.7352708040933955
-0.008534729445595968
-0.42145242194008126
-0.7878988575738051
-0.6835192513741062
-0.026218474868103803
-0.09990326125121451
-0.4215941733046764
-0.2638232864852186
-0.909100833716483
-0.8963890239187282
-0.4401760366896852
-0.06077134473944823
0.07868884341722548
-0.23115397048603836
-0.9594716342932903
-0.6071000007181813
0.5510673671698398
0.8869710677576077
0.20852726083704565
-0.6085538833266062
0.12971016084625409
0.9184870299298791
0.28248439761290767
0.40655214813375595
0.7355234844591576
0.9424245928234876
-0.5003048245461932
0.418729308829241
-0.8643114483845566
0.9032310374715109
0.4443814460683031
-0.8020063143759448
0.3264157729842483
-0.9737924357961081
-0.4369541936804724
-0.9021483628491367
0.880376957648076
-0.9006881602678214
0.5437039298263384
-0.9151772686773518
0.9991107526437841
0.5085944544503773
0.12839238914820195
-0.5535694222079954
0.6845248518742866
-0.33351036772699216
-0.11657348123573064
-0.09620179013860475
-0.8200535145689856
0.7866352439581876
0.46946224450319507
-0.2993146457358693
-0.3699986073118493
0.8358490569262789
0.033492033587338765
0.6490100116512079
0.7699284137196294
-0.06665772352186239
-0.5125137225475234
-0.9184020593142466
0.37876695083439826
0.4692033842975891
0.6434656754700308
0.19610891118936546
-0.7828200720932801
-0.22135987341478125
0.44237178714320824
0.36978971155982365
-0.7804939700838538
0.33541812335987076
-0.15582095172729993
-0.3170916271272852
-0.17903953518789684
0.11739076734445009
-0.6607297503812322
0.10942666148172298
-0.5252664637179776
0.04896547093656611
0.4961755360738209
0.6166710373341184
-0.3499367099672317
-0.7601940535651015
0.47835347318657373
0.761465350770576
-0.09881271462637753
0.11602319689139318
0.042770036720156
-0.7216077880670604
0.9584059295644876
0.47956026596644996
-0.8243896887995708
-0.3734479615095887
0.21631925163463928
0.03342983975800218
0.2255356125128869
0.49439302430647913
0.4806252101742474
0.9749166209305153
0.1624761841763387
-0.14211217059385017
0.38369780831267364
-0.1141913089601414
-0.5799708204365028
0.3455355477119866
-0.5095101112632909
-0.6618229704167431
0.6721080580415166
-0.615627956978791
0.7901338367840949
0.3861733518844952
0.8495690800595128
0.004943053535772179
-0.5712288485475541
-0.2798822586168537
0.06433640772428029
0.9473424599946421
0.8053273254613025
0.4348768824913085
0.43054422441179163
-0.9834129755752956
-0.07470526349500028
-0.41242461146261267
-0.10981733927889747
0.8509540098030324
0.7353697581947467
0.5373958815510547
-0.4852653339618864
-0.8625770800552421
-0.10818881966518434
0.014096145891000278
-0.4357642753548894
-0.3703142406971507
0.13262061274605275
0.3540990450863657
-0.9584996629397486
0.5366577822085041
-0.9662720926326922
0.10882231997440184
-0.733874377331931
0.6174873593577244
0.5852767451453049
0.22159850729069586
-0.2587170378331425
-0.4446083786370987
-0.16143922815856993
-0.5128865466244439
-0.06799021853606857
0.48147253860520656
-0.7488877863295067
-0.4126306593881204
0.48191966889351723
-0.11900334050927808
-0.7031016375216417
0.6407570297802239
-0.13405122046109863
0.5384491866004655
-0.5894648885606812
0.9059002569038292
-0.49003733059557564
0.6640016573059937
0.39887905787091094
-0.9504878803378327
0.0037482482633854897
0.8928607816865808
0.08031310292087479
0.2175833593551766
-0.807878976970626
0.46029343958930813
0.10149362747371526
0.04179852401606343
-0.35042140268917876
0.5289515067799753
-0.3667193433124045
-0.3318441509603878
0.3271367659339597
0.38144845801516736
0.9620249586294918
-0.08765610843050942
-0.9943142066202886
0.9899671354892368
0.8693399608994898
-0.2734942072794524
0.5984085362164633
0.33600664142767345
0.1329384346683693
-0.6953984692204818
-0.6844944357415748
-0.22279505927328191
-0.5169315308624274
-0.6413451889486295
0.2376742804547496
0.7445002083039594
-0.08646523196698452
-0.6342489804787652
-0.05950674126870359
0.10172457412071179
0.3732455250145057
0.9157298385074024
0.4700663041071038
0.6110496467581785
0.5536781727165672
-0.3179056513250962
0.19098204730996549
0.1215326468469442
0.739609865789947
0.9937369781035998
0.8108510117495467
-0.6656600012385465
0.5049120226928507
-0.49733974613795273
0.23138200721288005
-0.7029468460977188
-0.5878382203780281
-0.9770508597018863
-0.21583463724281415
0.14078904298299055
-0.18572486605438066
0.2588288009848927
-0.11996762575445241
-0.0023029464153208057
0.35832134415302885
-0.15527907873057578
0.13406320797600113
-0.4772792337525029
0.8561300568170758
-0.11221086686077686
0.6240199967427762
0.9923425332546638
0.8132555524863216
-0.9664576645386456
0.09818348828914303
-0.4356441478754347
-0.9026826939560535
-0.03235718291590217
0.6692756036732421
-0.043460860968083104
0.9786869314428108
0.22214460426394345
0.8143531775020763
0.5384325021393499
-0.9090532487113878
-0.8280351227253846
-0.6537387650079955
0.6292477922405761
0.735496413451243
0.18747001805583663
0.43043720377038874
-0.3437309650018596
-0.6058605452163799
-0.9483643440042357
-0.3084391215250175
0.7519298851579888
-0.6845679016140729
-0.044681448064474605
-0.012252140534430689
0.35408204125415277
0.6050321176702407
0.6517555727023692
0.5256869905687602
-0.5772029830554737
0.3772373968615592
0.6814840719309663
0.648326485045537
0.9983713748943708
-0.7856431892982108
0.9714553399578953
-0.15258486079516964
0.9990346368150071
-0.5674894063688292
-0.4328083651768255
0.3364095344938731
0.3931853569414059
0.466908285002821
0.7744142604200812
-0.135040151557007
-0.8201882039207347
-0.9333919738045222
-0.4333501342372672
0.3643918227957017
-0.02792176748957309
-0.07178853595088452
-0.24210106125125797
0.4843033017477376
-0.5971104242421614
-0.10009596514320607
-0.8554707239351182
-0.886400713468414
-0.942427592951055
-0.04829821491140884
-0.41186489261047465
0.5749902966867049
0.18764028709218272
-0.2652801951800199
0.8411805798679366
0.34018392394693575
0.07093835256568704
-0.25826935155864583
-0.19017508498988445
0.8337011525585438
0.5572910100331854
-0.1667665033856267
-0.09659587463956232
0.1764530220608762
-0.924895782161973
0.20770853859089722
0.13762227223454793
0.5659156806171974
-0.8267975505597007
-0.22831557381090528
0.7385841863373945
-0.6020542008919301
-0.4664923093224973
-0.695301611570962
-0.8626214412513593
-0.7940195600594298
-0.6860029533959029
0.8161838250661373
-0.5500006062961957
0.026569495371635554
-0.3322970341932525
0.055771497246868584
-0.19502857946734609
-0.10410831174395829
0.33234796657449595
0.26544424154905166
-0.788876992017681
-0.1598925702469527
0.29653505350298315
-0.048561143043627464
-0.9494708151883899
0.9431067425090927
0.7222416621110785
-0.2942593948900505
-0.2632755534463045
0.8584116362824459
0.5396939696370211
0.9214701822338189
0.5958632787526703
-0.5223036477973935
0.4295267523248494
0.6234152682723879
0.6085855431694842
0.3765927618280138
-0.7315389130336047
-0.4255872608896343
-0.7070793122383179
0.12914977211299017
0.5385613952872059
-0.6797606522417259
0.7136431173783615
-0.38448053332117715
0.6864607098522189
-0.09987646570031239
-0.6289297747837095
0.04314658282331063
0.9677717883673387
-0.42305703766158365
0.5523711376904685
-0.4400603930715514
0.9232288691363275
-0.8693740981943849
-0.3789663190877588
0.05860591749947175
-0.6930655028855168
0.01022730010247419
0.6752144286501913
0.054536379106916444
-0.9765880327853769
-0.04539539955743965
-0.9767248716780446
0.36532721785543254
0.4289945460916571
-0.4314299453945172
0.004886773508069098
0.7282314228662148
0.21440785118846994
0.7808504737128834
0.8286609033546379
-0.5374662709235445
-0.9907673569704358
-0.8878621370387154
0.3023456755866514
0.8170472724053901
-0.16473827938736307
0.24596811512171657
-0.4007975530677692
-0.2613676052896121
-0.4154070518333486
-0.4778827295611199
-0.46574344447481697
-0.5441577895770904
0.8096295222274461
0.6616586781581684
0.21669468798324898
-0.5074984747912601
-0.7140149269316092
-0.7152226371062855
-0.6002415760194755
0.5092294831486315
0.045621223292458435
-0.4031096349474066
0.3670624422908708
-0.28338032238985567
0.87637170589061
0.9955763217468061
0.7743439112773096
0.5119935875163562
-0.35466375661967176
-0.7097309833390877
0.5082271908729363
0.4623476713909245
0.227455204653231
0.7286243126868364
-0.671333606060674
0.7893162595815573
-0.6930958931995903
0.08792159090540608
-0.17069279493145606
0.10767647762077992
0.8677752558438236
0.7168154545464311
0.0800858031941003
-0.6728756760976988
0.8018421335747501
0.6022047882101964
-0.7910372587410297
0.7350298521325647
0.28794126462658354
0.13476652593492
0.46287246512162383
-0.08945663475349352
-0.21344891017980094
0.680699704531275
0.22849916791453606
0.7654331319306398
0.5020976861705246
-0.6218602866108216
0.9670725599287382
-0.30129341185310055
0.6217654658195542
-0.5870567491074239
-0.9563719463740765
-0.5470791406412723
0.43569915224343236
-0.6284580970400082
-0.41411690742666707
-0.4824786625236399
-0.39091553260463696
0.7116950402677433
0.4153843727197226
0.011017996328433366
-0.4425889086352903
-0.7871566437252582
-0.3849296333838548
0.6104203557735894
0.7653104088197678
-0.9464145242219555
0.3793066857527072
-0.7298208099932084
-0.8586858645658715
-0.3811222940168908
0.575654186723878
-0.29078813241245416
-0.6846663201004508
0.657134298806783
0.7933332793246657
-0.05658407298786261
0.16261213565314492
0.9874863292394094
-0.43844901020965277
0.502404158827243
0.7773548363838387
-0.39996854350524824
-0.10843943373012821
0.39302178855906655
-0.37880321495331537
-0.3030107956754262
-0.6704739587905169
-0.6414647750642781
-0.36388050582204867
-0.009748969973749633
0.3029678257462818
0.5312093939880131
-0.2616189424051649
-0.5991050916166369
0.7017683163320052
0.1873195740317306
0.2994786732317427
-0.8011891592969302
0.3554197165088664
0.9874704817983302
0.9721140390623229
0.5756627197262145
-0.6486007492022821
-0.17857482731710728
-0.46641361984588503
-0.3380102079897065
0.9852600008596635
-0.8245273886877311
0.29598997048282283
0.07932872271208846
-0.4587708265096586
-0.19830739444726508
0.07204777577664867
-0.73918391378804
-0.9271917149100117
0.39230388938525884
0.687363468438368
0.9788087445512637
-0.11392708126878581
0.9486090938586496
-0.40567005976459347
0.7856378819421139
0.524073020192291
0.582879518214273
0.2698836089804566
-0.5963095160195531
0.7089378205111672
-0.3971501239831636
-0.23125241658391427
-0.5064098577230953
0.9189922557327133
-0.09767862505541824
0.05576001652486018
-0.3156724431589846
-0.9386042209079943
0.9176998487310393
0.5553369501279424
0.26676886722422677
0.0465157035862207
0.709124136004617
-0.2669278902528758
-0.4679522857953684
-0.021546875682462163
-0.913833056279
-0.5360707603284578
0.37892638561075365
-0.8531602614641891
0.12191979761918348
-0.5565645346253676
-0.4807122952426961
-0.9617707045866655
0.8856009281089889
-0.0372623614680474
0.3784990940179582
0.1811086391179355
-0.22734650551687308
-0.004663235173389735
-0.3825325605825094
-0.2032417744720676
-0.577370583415282
-0.2672315933060858
0.09578130284580766
0.9488936808144737
-0.11101727863455846
0.45845019681317356
0.05041633223067166
0.1682237935213693
-0.5387764236270594
-0.03662924293945746
-0.717943437745433
0.37376342967688037
-0.6612869764613079
0.584247987838852
0.22116308970799037
0.32094265010848066
0.21670654992042282
-0.6157637484058389
0.8884996959297207
0.7772571018025858
-0.23091799251600054
-0.0017826772259139645
-0.030097089563839052
-0.8405933697709655
-0.0014834452140524146
-0.7708389321471794
-0.5073379073878135
0.46157399402256183
0.4737045738536878
0.6089960443180631
-0.07904620074008095
0.9626969113627168
-0.41546274648363646
-0.17311654603464155
-0.11964796207381023
0.4212909257259396
-0.8800080457012573
-0.8202600849429647
0.1765144826492493
0.2495831876434964
-0.2901915890252169
0.014309025363975936
-0.7092766333961262
-0.4955791985112794
-0.03014339522300946
-0.4929660945527108
-0.8849633124648852
-0.5593803530376538
0.5524285229331092
-0.9325639127932668
-0.6676153204249895
0.8431241897289814
-0.2734840011148576
0.15265985929323378
0.5520241957201162
0.3875503503605966
-0.400537492099198
-0.6547064386968611
0.07834122882915451
0.8743871313637457
-0.35979270067518887
0.1735329851486196
0.021071123223419086
-0.6596627834867834
0.775666667542706
0.34220449123677343
-0.6524173765105661
0.7709768203701806
-0.9943740936578416
-0.20488004265497284
-0.567048118630139
-0.5778779963897662
0.2178439033497208
-0.6563132342750322
0.6811284451041633
0.6029883553251296
-0.3161000642429119
-0.5263489696278456
-0.129424328686069
-0.8175641062330525
0.5776406647582373
0.38130443624083443
0.02034434445018407
-0.9497051852267486
-0.21808662789810085
-0.7075617798428575
0.7776173578609227
0.2989679679630135
0.2355994657483098
-0.3182185671495632
-0.4046588600122074
-0.013786934263770645
-0.8782093501601045
-0.8623870754570504
0.298637767991047
-0.0017934508299124463
0.30927828120371537
0.30569074136601593
0.031269505162323075
-0.2473019798506788
-0.3666457392055489
0.5985946043793338
0.028505990105709422
0.2652644185460422
0.8382500491162594
-0.8289689903191682
0.180322570977147
-0.5526224749797062
0.30236907953218184
0.038603524997427696
-0.07106451739464625
0.41320159923338085
0.028794588295277812
0.15700354207840594
0.6872591055389681
-0.9572594436064705
0.8073850793365314
0.7805302672662333
-0.33005279143198973
0.0821574129944409
0.941095278496189
-0.5166980078915635
-0.2037404179009934
0.6577917522805388
0.4779911023352983
0.8534734135777673
-0.8459278733214055
0.23860474426178713
0.5017530659487812
0.0602269826652706
0.40692802080837565
0.8024833304130925
-0.2927076154014656
-0.7547404068258496
-0.5188950114206108
0.24503885758632227
0.2244307223443771
0.004938872832035646
-0.11274860582940383
-0.0847611584094774
-0.548575753549398
0.1062567706227242
0.11122309899510285
-0.42958684828145377
0.5214390112917306
-0.9808396512166446
0.651330092357167
0.013879372343733598
0.9489143060861107
0.8497943509048822
0.4842810500297854
-0.7883652225492177
0.9890779436205335
0.8236417453853646
0.00969086584010559
-0.21973372484156228
0.2927057608439745
0.5945021025117874
0.8530954585180195
0.3964319809151584
-0.4504543750914227
0.3447017741637457
0.29999575640853315
0.8989716211254482
0.9876546753745954
-0.1061194369581715
-0.4114691778642001
0.6379062633779331
-0.16777347939421916
0.8481558639239306
0.805958538331353
-0.029709949070812147
0.1263128226766126
-0.8015846689756543
0.7141999718105543
-0.28891846785065667
0.6771725809042823
0.715944506572125
-0.5277178639703879
0.8179032339434096
0.31580980699977057
-0.004452195843658302
-0.07140861647487218
0.6217627823065954
0.14358897622199995
0.0607745147758727
0.9234287337356857
0.5115110434789627
-0.011354357938688775
-0.9271848895965806
-0.12756461835744726
0.9061371254896391
-0.12591452029530648
-0.20596438863079625
0.9247401662142765
-0.7697924715263922
0.8494710023901231
-0.10087759418274445
-0.04541189519061084
0.4218679751026091
0.9026536947395787
0.878788675426601
0.14864417934759677
0.7558225849757305
-0.7780988381145062
0.10598544812532995
0.060560168153320104
-0.24940263863836232
-0.05085337684658131
0.10956691282929998
0.5811065734608627
0.17015898096563653
0.868144759314825
-0.11574074866576023
0.3805787154647715
-0.5884637198469056
-0.20806034588949163
0.8676695726146406
-0.9875402139412186
0.14178846172205817
0.4568348061325964
-0.2544714015379985
-0.7400550557693804
-0.8410113731502882
-0.5804915216930555
0.6389388712808868
0.5276325433368563
-0.3742774202976755
0.7058702625746625
-0.3175212535177958
-0.1361054279944276
-0.9400712019509603
-0.2252912469057473
-0.4804092729749969
0.5451377853803827
-0.23326531546795848
0.7361318574793843
-0.17824033622733482
0.06137336188402953
-0.24372829677083874
0.7042563437045772
0.5805661845740813
-0.1867857378902913
0.6162808940436939
0.6655544783876537
-0.37322262251618166
-0.13637741422694427
0.29464753323552073
-0.691280025667458
0.5982156037154303
-0.31656614834364327
-0.704167826514098
0.8888683419312424
0.4082244033490161
-0.012113891652682174
0.40649405719581067
0.38833917336076573
0.15912837753434417
-0.5179131012762375
0.7394297170802748
0.9883219666321925
0.400161982967562
-0.3834474298432311
0.6212788096779311
0.17997989782710344
0.6469208942144891
0.2996588912159279
0.6482769064370024
-0.279301452824926
0.15946665242561364
-0.07795584094715946
0.09566338834500199
-0.9194595020968226
0.11879468884605959
0.01870980411226375
0.7901796674771022
0.025939333420116784
0.5464531967335173
0.427765373898114
0.5414230732886287
-0.44787996604675717
0.5796778418233515
0.9004700994241757
-0.7233522297844404
-0.4973144910890932
0.04448751232252257
-0.2245764173503817
-0.865066533246236
-0.0957377523071199
-0.3382382658103238
-0.449535840131293
0.9504703384659186
-0.7039481109774028
0.6764007317248528
0.969034048623832
-0.20896282927873155
-0.8514131427101455
0.21724596319152267
-0.4165247207947633
-0.4834231527781454
0.8429441570217389
0.2755176409417661
-0.3340774467631238
0.6841028418114417
0.6211211053976009
-0.16789642689662454
-0.19183661079809688
-0.4510028122993226
0.4202330326894881
-0.6308879301730721
0.5850370224292771
0.39908914923631134
0.5676441985391565
0.7686794790909017
-0.7483508157582472
-0.9932674602597109
-0.05890313173812056
-0.5678986229811065
-0.39711870003005
-0.4045740694395328
0.38735680687277485
-0.6550656863202797
0.8443758980410911
-0.6086496515875184
0.9448461408447233
-0.23120715613952103
-0.39261602013394414
-0.4334744670657782
-0.2698118117487589
0.2581461414637922
0.0855625574028096
-0.8208851683802827
-0.7744584702280835
0.7804940541353282
0.6800137274398539
-0.42226370816782
0.1430536867514065
-0.1391168194085226
-0.4904398388077431
0.6604665986603364
0.044718735140337085
-0.12319967262079934
-0.3235455367648077
-0.6344489097424841
-0.5396252327453919
0.8970587100645988
0.2734237004875999
0.8196632088606899
0.37353200911217765
0.7883712080904761
0.7761525098670152
-0.31911703465380103
-0.3658257680536321
-0.29411770023364703
0.6860126750862994
-0.6126066587116952
-0.8903706076948901
-0.46099108531536714
-0.9289515051687549
0.2592211076628208
-0.8009405193293895
-0.5984815024500709
-0.0010676780349341275
-0.3008228353961928
0.7140714629483664
0.8348507058137109
-0.2361940247220382
-0.8995212120114109
0.06740528381505984
-0.9637335006439334
0.27962810656679427
0.4923653247459634
0.21360708286345131
-0.8715115297731357
0.04585003970124091
-0.5586536964266
0.8500500770524637
-0.7449278993958162
-0.31305381574983415
-0.7254509648005596
0.0136176052208552
-0.8841728747360098
-0.774472251759561
-0.6970385229696419
-0.6021833047286531
-0.5508139044247593
0.9694720698510237
0.39619379184777404
-0.5329571059789611
0.9234950556527313
-0.8232969742036393
0.9967098312691733
-0.24082860889183344
-0.08322012831199532
-0.49303985181458865
-0.5396906985307286
0.6446009927800873
-0.25538118154923173
-0.32190104255813945
0.4709672865711916
-0.750667393242467
-0.9616680071421486
-0.2848335726438507
0.2019681011748562
0.25161447944391835
0.18077422821661093
-0.28630054041961706
0.8815974883013278
-0.17385729627756108
-0.02540245298010868
-0.8656026087897426
0.4704848468979712
0.13675550892421606
0.047927285047184354
0.3045228143959986
-0.7309831353206044
0.46801496854735225
-0.10502679736063092
0.022086890873106224
0.4470699850319293
-0.6619773452142197
0.9041764486178085
0.9420804566587502
-0.2753605513996995
-0.25073210779794675
-0.7559299973891365
0.76971385720079
0.730768935958636
-0.8887386124343073
-0.9428907410731282
0.19383184639997575
0.9295139519779778
0.30816003953687265
-0.9456929957179916
-0.03562649576649024
0.4255001608373674
0.8865410479342444
-0.6914142841483706
-0.4490502745077418
0.4479656779455088
-0.5970624190169782
0.8123375704858469
0.41531431375314076
-0.13899561221305756
-0.40229911766507054
0.19476101588607286
0.08870726220091507
0.6590562213222924
0.2512067449362203
-0.11287853497897893
0.9657531879057029
-0.9194825699431872
-0.6696224626225491
-0.020840016338499856
0.009799280677956101
-0.2913273364878042
-0.6520556790202394
0.02745484058597203
0.41028164113720145
-0.2720210233714586
0.7338262676966543
-0.8433843970943671
-0.35908864065691626
-0.6349408920645663
-0.5425419299461369
0.9367706318564215
0.3381751054791702
0.46759039879080144
0.1418488644989515
-0.27411543441380326
0.9528477881286035
0.16060352875679929
0.47460994821004077
-0.566977857933114
0.22291826513586588
0.5685332527747877
0.8481404253986944
-0.011248009424924543
-0.8254679655776256
0.7026915124142952
0.8506146408072615
-0.7985378877319218
0.578258419903642
0.7876616859059495
-0.5186326381815485
0.1334377686429542
0.5711915868541722
0.5364402074374972
0.7787255538294029
0.6481294208710118
0.5011000764965128
-0.8170190521004235
0.9252898523404192
0.3601172960681702
0.9570399475910869
0.44212452399569613
0.8351210721051756
0.8618570288530132
0.42155245438404987
-0.009275545203073943
-0.27075983029256334
-0.1936309612314715
0.012768074421004139
0.5501082579152143
0.2703037824529728
0.19261231985865912
0.19884200950077435
0.45427031337825907
-0.9696388024985187
0.9781580581909486
-0.8439074766673444
-0.3536755566483023
0.4539829290301933
0.6546096006580402
0.9497117009128893
-0.0997188945075449
-0.690410009452769
-0.2098686184171752
-0.3805058759800015
-0.9848559898923595
0.25762122145721156
0.050282353610105135
-0.595112137885113
0.6594449155508804
0.5129827631933159
0.23654390404340475
-0.7722335587366131
-0.6665543687710962
-0.5125414975765974
-0.3151296064892388
-0.7953021966899356
-0.05876485975742707
-0.19582279636114586
0.19604097683353716
0.4094748871862448
-0.6907904177492612
-0.5784972985145795
0.5774633842217234
0.15549944664793292
0.11437455902053628
-0.06620981243860635
0.5342840730542118
-0.8210598876538275
0.3753630378221353
-0.49096853807213425
-0.13163857792082467
0.277412802166461
-0.08898500849731739
0.3784882909237641
0.726862440922579
0.19526067376954725
0.9858179016167636
0.31099311103074734
0.9879463049268451
-0.1546624837181212
-0.2615389223450244
-0.9153274753116005
-0.22079855172237783
0.3185285757707059
-0.07079139022022507
0.6114284708735294
-0.40479450319938826
-0.44393102987494304
-0.9562495272774039
-0.9254100878381843
-0.48621912673115886
-0.9539506847861805
0.85564278474685
-0.7922748046494152
0.6062223598676781
-0.5456743491073675
0.17640284573249443
0.6726842689216133
-0.20502514608886924
0.7113793220237021
0.7117767892574527
0.38751793584887206
0.13294438492994232
-0.24950000961016983
-0.305349475123883
0.6099986719382444
-0.2381732336396294
-0.17100633659995967
-0.7204706296769341
0.6000466322102678
0.6525427089725391
-0.8370544421540764
0.5604628060666434
-0.23555767942938477
-0.36092900208734724
-0.5326044236620604
-0.4862546613357652
0.32978487542369517
0.22767418913118886
0.9176126074641924
-0.8313227998868082
-0.20526588786500644
0.19671433323869936
-0.9665186027361496
0.874121713417976
-0.319848303348067
-0.9020398290744869
-0.962154938497584
-0.344451005943599
-0.5741645887911244
-0.5715106480099326
0.3509725576978959
0.34670945482111115
0.6751186545324386
-0.5370071225947577
0.057150825037625586
0.43203277463687684
-0.35631529210169277
0.5194924519805724
-0.5842726048121947
0.3503025441188312
-0.2134750951951898
0.7771831249228076
-0.21224147188767817
0.3871076619699376
-0.44295378790335516
-0.3266809400077082
-0.2892541657665415
-0.7769724218924687
0.6949130033727386
-0.6232391564777986
-0.722227453287603
0.7064589030203514
-0.815714161077532
0.8690080632643005
-0.5363217291630658
0.4844458014739963
-0.20830254369918322
-0.24075799665052955
0.5897396515937028
0.7518287799445533
-0.07711439581549495
-0.8818912759319264
-0.2703474948413842
-0.43151959838672904
-0.5695211874424577
-0.6643266196287549
-0.4665612361215201
0.9463484547139116
-0.040489325177165414
0.29218194651493223
0.6822299516061119
-0.777518399965097
0.4353160133594549
0.9759683604753135
0.9857070919327815
0.11116419682485468
0.3784398398544757
0.091048517249541
-0.004695312285515341
-0.7322582161053952
-0.1262310852407622
0.1676460348035136
0.9301150970215823
-0.8013301311708336
0.2261733636505705
-0.7779027826450475
-0.3012427881055204
0.9167736140923748
0.6025240996640735
0.10828620424565871
-0.1506978831599246
-0.13234182228289693
-0.7099701635605393
0.36096466716398834
0.3906755326340883
0.3426627425265194
-0.40658405936943254
0.5520124714389709
0.6027861225979625
0.8457039228923136
-0.1514553125381637
0.9639000844245116
0.1889561893870373
0.6958090137177659
0.5476558955120805
0.7303162617191536
0.4230592152378303
-0.4759095774321329
-0.8485166981243943
0.5021267728099008
0.3050977234254093
0.2633672916545893
0.8060822506245231
-0.8324655568941077
-0.8372180360646153
0.7305931390839109
0.8872804084588635
-0.8114866128881739
-0.37700105442975174
0.9667010569170493
-0.9367572876388346
-0.28870770101584586
0.4258888928172091
-0.874568359727216
0.39571917094692743
-0.23313271615504116
-0.8344254064168408
-0.107838550250142
0.893122762277091
-0.4017749846976073
0.7154173696776371
0.16570345543610943
0.8836618437669135
0.43416230324614036
-0.16799908015215026
-0.9494962432474356
-0.4056683151644658
-0.12470986369639903
0.23087308179891108
-0.9163883663880561
0.4016445756396336
-0.5339862466663661
-0.7115963915904686
-0.9397457894273271
0.3625596745750417
0.996983241639491
-0.5520564371053265
-0.17620128666967982
-0.16085080961223652
0.615712837700862
0.3948006663092547
0.950339502600934
0.2981171719304805
0.9187692541802603
0.11337323940302935
0.38509988011074014
0.6963641856933569
0.8571333722160563
0.05111249456599709
0.7772914161186251
-0.7436295545855582
-0.4929576086705638
-0.21218783949620024
-0.48797267945462397
-0.10975277219931123
0.5418226895755156
-0.1549479331343535
0.2523390842041897
-0.9511153561021306
-0.414073322582051
-0.4305495057217881
0.1812986237273435
-0.6472976485170181
0.5405901282248626
0.3847075256178243
-0.9262982582149486
-0.9969123040534691
-0.5587700445188855
-0.8687479876319026
-0.17127832899852025
0.6786835025190698
-0.5600954275376782
-0.30137072592649883
-0.840606105003318
0.3882670101090553
0.10186353951009175
-0.2954013693483273
-0.23825165674365056
-0.41796241270493617
0.3634144849418919
0.5862349023444768
-0.5241443270733883
0.7157118017701951
-0.7809595396173372
0.14215834912447334
0.703009889066261
-0.5831008414846017
-0.5110978184875035
0.30134377269793133
0.6577210746670048
-0.5791865972036099
-0.13643586635948557
-0.3072103431196904
-0.08985408962701258
-0.4775505900999968
0.8309854468842832
0.45165402082183603
-0.8859636745894734
0.9349360368605772
-0.9384792251531036
-0.3787056569505365
-0.18275981845499323
0.6488519813810061
0.3598784645755657
-0.5030255906179606
0.8162408309957034
-0.34512935980925397
-0.6113127136162935
0.3058315262692577
0.6431751243935016
0.22217787514668386
-0.9734748552695756
0.7290236266540437
-0.536776533822855
-0.1823158042719759
-0.5560322522932128
0.9458053352825315
-0.08778224734841888
0.7061322671681278
0.7644166295453645
-0.8843905483508754
0.218766462509415
-0.21122297367166198
-0.4778295435641031
-0.4869613490921936
0.3321497578621575
0.818395529457508
0.03840610459852334
0.8920003040120055
0.7166895566141087
0.770960649103885
-0.6935613924053421
-0.920954494110555
-0.0247461501736419
-0.14060894602170237
0.28230158520857684
-0.47099326077526715
0.44236865143962567
0.9006463050572071
-0.8487852236109923
-0.7925308423316413
-0.08870797045642487
0.895270828848773
0.23364952299596808
0.792408399889398
0.5310129374612889
-0.9779264263378664
-0.8492829387284668
-0.6889720910233514
-0.8349193582087235
0.5682048946879878
0.5460350001992684
0.18838089480153042
-0.1662017921785479
0.6746715445097884
-0.33505164847657554
0.24588626758341814
0.13347084919471053
0.00896379271724057
-0.7194307099743416
-0.027723503448611186
0.6878068576674177
-0.8767687416138634
-0.39267825479426555
-0.5047384376567616
-0.9924918395062701
0.6382052559014524
-0.17099467367033405
-0.7533539934116666
-0.5983333956855181
-0.5112315629790336
-0.08277941323788274
0.44058829573440783
0.9146589523128603
-0.8747237706894928
0.5273259095196614
0.17414652725063418
-0.3451858827269172
-0.21456377828900886
0.9329251354514259
-0.7887942244082577
0.3362010089159213
-0.26524289692082115
0.19621186557169823
-0.6746630129228468
0.37246638100814167
-0.2807209514204727
-0.9296744096187428
-0.5459103455139465
0.4417287318342733
0.7825031814204184
-0.5087972043628051
-0.1433262476550874
0.0841124223291505
0.06913946628818346
0.9402333235926867
0.9689398475300692
-0.40141495595506727
0.2714953313431734
0.4453623459257954
0.714019052657334
0.2733384291903409
-0.029968591801044164
-0.46289632978686557
0.6539375750620271
-0.18596762154675583
0.2778132224902976
-0.9127386642955204
-0.4430254911763212
0.7267980136309826
-0.08070903515705763
-0.3680179771805232
0.7074834794460605
0.3679755949202175
0.15704266961405278
0.5170902409605873
0.5993525653602811
0.3901406605363045
0.8258187796416794
0.0024863257086036317
-0.46876979680945885
0.39404905167644655
-0.8585695854010524
0.3237145354826019
-0.9389024056865414
-0.2612891846963392
-0.07727490116384717
0.6326381185488918
-0.7202790843125071
0.6668804816476199
-0.6019017679215473
0.7254845806214503
0.42697050091481725
-0.8291705250972934
0.8636910770288448
-0.48464553484943185
0.5019471310707639
-0.64665587694904
-0.8813708259853079
0.31761301414319965
-0.7926922217950305
0.43147200201290103
-0.17664172173529735
0.1904140344155263
0.8201378260367103
0.9856156802817941
-0.28966161136938906
0.8089321489997789
0.39616858781664277
0.5741533561748513
-0.0779411733330233
-0.3492912993709072
-0.908907530031819
0.41384131112985334
-0.3404588944536928
0.6308435128647361
-0.6778179193481046
0.4688341189121097
0.7951992343385823
0.7495942728810112
0.995370676560134
-0.0037662621148528697
0.13713005859625227
-0.19872761801263605
0.08740732765036352
0.3636595051377325
0.6276096899926797
-0.2578478172858589
0.4996505081423861
0.7844071568323623
-0.08322504691975263
0.9264398723458869
-0.7104815232853905
-0.4916562605755814
0.47317188072660876
0.093174622201047
0.13756845482220914
0.9617643268157028
-0.323943318941482
-0.2767354673177973
0.2226274612860064
-0.652987369797537
-0.8199624970680977
0.1846861685410328
-0.44564650782869064
-0.707252205504822
0.25084842950779396
0.9452067027534512
-0.7479428700430248
0.2883164373422822
-0.25824965896057783
-0.94418622356981
0.2605670921904881
-0.15923242100618773
-0.08674348094076945
0.09436756648174072
0.5583769587002321
0.5606260599008452
0.3945837869702755
0.8078178613726246
-0.9597373805433571
0.7126186891670983
0.24343307343153286
-0.19734453701727106
-0.053986097823519597
0.1601244457736657
0.2814069621136204
0.8070974429702023
0.9588761212958588
0.08719976801404017
0.6655736105998791
0.2648324133345128
0.9117511566488121
-0.6003940032880477
0.002391627626402215
-0.6810192250420459
-0.5838392631068101
-0.7136535092191443
0.21841128328497672
-0.39374724448473364
0.6684267800176427
0.06579677941740725
-0.12712765547844596
0.7051151909816986
-0.8105218800091223
-0.8544085863919699
-0.3694789166797372
0.5681066814583129
0.3191452842311542
-0.3069925629942447
-0.7913276177359105
0.8172676673908317
0.9127581017077999
0.44266340753347366
-0.7292541284079634
0.39298144782157807
-0.12268566069983233
-0.03906822453572989
0.4592082396729693
-0.2796506000908343
-0.06355952012978316
-0.3584616700010068
-0.9559429436277891
-0.7064479439576905
-0.6721808173682273
0.7244033217257291
0.5086845168889531
-0.6225239406304597
-0.9862896747006138
-0.2901455587981432
0.8031623628837634
-0.6127855436039245
-0.5753528737696216
-0.31707775316121944
-0.03430726763678593
0.4298770680785713
0.7583398420799228
0.2675044409560834
0.34617305498257256
0.47947395079943456
0.4202749491956108
0.1977656810140509
-0.23847475751835745
0.7044658749216461
0.3194491408299496
-0.1757834543795358
0.5706435137317163
-0.4210995367326993
-0.5778687150563442
0.26449308386907733
0.8775180812970336
0.5818838704199534
-0.7815013509274658
-0.636062222841024
-0.14570513680032993
-0.47353600648567173
-0.42855316471504423
0.14865977115719864
-0.4782656898822413
0.8578302327740435
-0.2061747653926056
-0.9661691442895282
0.23273639762466303
0.6220625633612662
0.7398046846976349
0.6925512596812917
0.5753008152566079
-0.7695091025513325
0.19803475108120416
0.19569859789020017
0.44449582972437907
-0.3689454143723765
-0.061296497773923875
0.8007500862648511
0.6287107844383302
0.04687806216488699
0.3935638714170293
-0.4023530113173701
-0.5863278112009316
-0.9463907384273864
0.13744565102428252
-0.8876514179548387
0.42840466605911365
0.4408937923832257
0.09172297952806585
0.923800218200516
0.24052290994789494
0.03968629581578775
0.684663216490869
-0.6323806377308105
-0.9460581433023108
0.4959295414752116
0.08053314988898563
-0.520119912033935
-0.7297018467149541
0.8324582516772678
-0.9712057736649482
-0.5230434490790479
0.6460757273562043
-0.4351856688967861
0.8866696857446388
0.27246202000669206
-0.6893651667514205
-0.8770122849625068
-0.06717874604338103
0.7998999324946583
-0.9939555724543496
-0.6200758340348567
-0.7831756336390947
0.23972035654328772
0.5678223091037737
-0.8010279914888927
0.8785857662640173
0.6420542902831594
-0.11360987760253138
-0.9137352123260079
-0.8762006341642339
-0.10852459291909367
-0.6277467848882485
-0.7296324504709031
0.8559896175519934
-0.5222824608936767
-0.7063809427873629
-0.1696590173212933
-0.6573549614211318
0.11635485617398889
-0.7366293486917561
0.8547067282342529
0.23239715487105395
0.9060283770292603
-0.9623757043233623
0.7421540720416593
0.4138818545655796
-0.49557426509608793
0.6049196223014879
-0.1024502611584659
0.8484477941519164
-0.05408352318714793
-0.988568307128199
0.33702469354468323
-0.6906977867424455
0.597356599140638
-0.537526858533981
0.37930559400157615
0.9953854759443455
-0.7302214156570364
0.9860282633255733
0.8060052678713412
0.20896372356589765
0.8681021690629478
0.518640023179074
0.12551728438012755
0.009784768656926124
0.09131673527129736
0.2667658322018065
0.9613327787596133
0.45405938196811113
0.6926632464516178
-0.5332898321339961
0.6473595644714838
0.4954775870065362
0.06306043280044227
0.5900699930076927
-0.88522200710296
-0.16945247210436465
-0.5657773312432992
0.027956958723878822
0.7194196479827482
0.23812267834821532
0.09362046033400273
0.33608881844035965
-0.21439078159482294
-0.7069387455763523
0.6616380428524975
-0.7658291987862915
0.3318627786411832
0.7265394430971919
-0.29801562559340966
-0.273185330844242
0.6957878885524935
-0.8393805109364876
-0.2803813752633819
-0.050427130088929184
-0.4100141840149183
0.46224942920978185
0.946153083027651
0.6424924047733045
-0.5022923408354909
0.5419524771392774
0.22089974168752846
0.5149208061319734
0.2564702452101697
-0.9349612117271975
-0.25356905889666725
-0.8108737938056125
0.1797903249759485
0.2482538712383946
0.5307261938922787
-0.10338039268253119
0.13164888861709811
0.6823531702600767
-0.07631885359991197
-0.35010253581799056
-0.4047493542749414
-0.04882785568310122
-0.18604177422610002
-0.7763502652840877
0.9670969081681704
-0.28966119355832975
-0.22713998489636955
0.9533063754133466
-0.9406576707475751
0.8438537832689625
-0.2848880638361573
-0.9048747815896128
-0.8921389362255265
0.3343410041846926
-0.5078584818944158
-0.7091504927625933
0.4603982309799062
-0.4371493621856457
0.24164651055488795
0.5412941885615363
0.5586389344086538
-0.10332656939772034
0.28794576137957617
-0.9829536551214058
0.8299769127238992
-0.3712957757595756
0.920811440980926
0.02079412017500548
0.6692209490774133
0.5994704071673846
0.47618271707330506
0.46462653097539874
-0.18257190132209167
-0.8369809242699164
0.8003654462067835
-0.6630256158234857
-0.8654926033150354
0.5504346832771645
0.400024575753948
-0.19230896528756447
-0.9858102771384034
0.13983792391123862
-0.6365199359406064
-0.1439008181347008
-0.49558642525409424
-0.3407068655979937
0.484518965206598
0.6056593925687275
0.573128763144588
0.9291313248997892
0.9281406865659365
0.910242188930243
0.8989744264148891
0.39277301671775255
-0.751644770968642
-0.8391844424141175
-0.9317613991543223
0.39021357569849635
-0.3986435846939982
0.7676865970470486
0.12396276456469746
-0.1040886122320559
0.5930967703980015
0.3222648419057599
-0.9599947052691844
0.2728984431946624
0.35849262523048187
-0.9463576588232372
0.8823318810371383
0.4875097141070317
0.19019163930267124
0.8691145639870901
-0.828244804513862
-0.8157936122938458
0.31803798688328233
0.004093142601568012
-0.7232036731260114
0.03754682681433574
-0.7139261528551211
0.10569081074483333
0.5422970196463088
-0.121564195059088
0.7821182408543104
0.43558609459129927
-0.7011373399698058
0.23436211171925825
0.7456681979168871
-0.198396178286389
0.9001694530487772
0.12841156274372767
-0.8869301099898588
0.8137759289982867
0.49962309701037166
-0.7505781282898929
0.6546106578877424
0.10947445018248358
-0.5951914200140533
-0.06427767168469489
0.01638582020875723
0.3035370632030119
0.5376242076575268
-0.1925188497016126
-0.699502604199256
0.5931343723151785
0.7799462528293473
0.33775988777158283
0.3003454338994769
-0.8165451942510467
-0.20087675319167642
0.16995355147957114
-0.14652564844615257
-8.876349074093959E-4
0.32455255090839263
-0.43062737571940946
-0.31735793272630963
0.5075098780715597
-0.21395515681088906
0.039301538777291034
-0.43351972833331076
0.9042191601788898
-0.2733651707741942
0.8369458649064931
0.7143196942222254
-0.6032330398925323
-0.5330495842503811
-0.1077402067845421
0.8154554122304425
-0.12795634351595053
0.12520529879823927
0.46272139650854793
-0.6086681483222589
0.8438811638691648
0.28633248646556875
0.7497041578087287
-0.20017107785000765
0.2511723577742049
-0.6342693922203526
-0.34283133289046663
0.5240352515339672
-0.5867656800370513
-0.9724530398383138
-0.10902165401552866
-0.7764034737706438
-0.7520546603567069
0.8943748436153001
-0.32277956498262883
0.4349301941563197
0.7195132078972006
0.22469564469448744
0.5204914630672977
-0.22269804695648698
-0.5934392238898443
0.23634944028515115
0.6281850989924378
0.05496074041403065
-0.9324566414053148
0.3187711432731746
-0.10560182448739885
-0.2587659599280503
-0.870659787432527
-0.4963183954004471
0.6671481290175794
-0.011313078838903312
0.13618974039202403
0.2533773310311649
0.9151747707352682
0.5301521414732251
-0.6300318200313726
0.8777145220886053
0.8656755313179032
-0.38135849103748987
0.08913737579477732
-0.2946627951001175
0.701903046528126
0.4998522329118549
0.1325171895894588
0.5116513885818097
-0.5103686947486388
0.8191838545104928
0.9953647052885541
0.6455011847868861
0.14407460236404201
-0.1641133184564736
0.9090719565707501
0.7984556786531278
-0.046078040172350176
-0.6498367917809302
0.9421212106549834
0.425067789220412
0.946728261337785
-0.15525053537766076
-0.3112356166832808
-0.550579185384797
-0.7900200866340072
-0.4992956278315892
-0.2767768577269052
-0.91726995341553
-0.8252669092665705
0.46783999855117253
-0.32896772821314757
0.3287210064879169
-0.17620105164254296
0.053427521741987505
-0.5145214798717754
0.06795883494967181
0.8040291986304515
0.3385174959493269
-0.6840856760635257
-0.5107442141248981
-0.4976662314402127
0.1394155636686214
0.21605485067765073
0.07573730138547208
-0.7123607635297049
0.20255896785506255
-0.13580642022047718
0.3551014793895455
0.3260764876637021
0.054240646295046435
0.45360163826590494
0.1880571216253284
-0.3557372001022825
-0.9776672262639874
0.9602020460440213
0.49588147400785143
0.4456222008667643
0.6053629652836467
0.10594028387277188
-0.9825094725469563
0.07726640447895461
0.5850006725123269
-0.48990099237957585
0.9383675812221388
-0.4999638144282912
-0.938785908491397
0.757133882020603
-0.951850019731117
0.6318813627214601
0.9350605901899067
-0.5915645977557027
-0.5393740830079328
-0.48516408927454013
-0.6532507148934616
-0.13065235503445138
0.8984224327123613
-0.5484573450227663
0.26581685492163776
-0.18598127480433768
-0.4626009251876253
0.0344781114392132
-0.39587577089167914
0.49726807739221
-0.7306610163449039
0.8901713860354101
-0.2295220537466094
-0.6816246619349899
0.767611552372524
0.2651950712972131
0.12045184522581809
-0.520034361213263
0.7579122787782699
0.21080567776407522
0.8165798194291478
-0.22435515130529526
-0.5584334266333255
0.0622075743127235
0.4414947404593257
-0.018999934644502225
0.886410248367173
0.510469987313463
-0.9679555995988387
-0.8526578457104803
-0.773871416874895
-0.7841109567385509
-0.9362580895400798
-0.4629782489156484
-0.3484869297300708
0.8822888887659046
0.8387366654564035
-0.05889893717372874
-0.6178264010597545
-0.7550397444503352
-0.28317982408538045
0.684620127256715
0.07482169058793886
-0.4793630139332752
0.6778086032268387
0.7516457492673163
-0.5456811297096604
-0.47388542623461416
0.8149732120865216
-0.8482528711039947
0.34626175253640046
-0.10718220643952225
0.5330163798614393
-0.09850579070282706
-0.25504561108898716
0.5878278967996569
-0.539579615686679
0.8090280438235735
-0.9318043228678188
0.2975827268462794
-0.615176167140526
0.6267053096440871
-0.6696114658386887
-0.8613342852266057
-0.11859203265394513
-0.9237269094448994
-0.39194485982259675
-0.36919578486046767
0.7281046814571084
-0.24701770680350976
-0.1230794063838141
-0.09960055016046443
0.6877651252442529
0.979501350174312
0.06730658488788754
0.6786138841387102
0.78625572970066
0.3074455449702316
0.014652518837791506
-0.18375471434020585
-0.17322224875001901
0.5537898470640219
-0.12543758303382524
0.7583194182531399
0.5545335544066763
-0.9886136702528858
-0.4731478354807379
0.7045370268758469
0.6221913373628989
0.7872605808251001
0.5106498509160109
0.027412407196120814
-0.6945722560962839
0.09931476937661743
-0.8873186008665539
0.9281466831125662
0.779157150230557
-0.19848248549817726
0.3734505461363373
0.2809789827588147
-0.31111755040088807
-0.5903855588864102
-0.018899633295209606
-0.8500359344866126
0.7379327191632754
-0.5361535444453458
0.29032316550444426
-0.44217303362044413
-0.9398209370541497
-0.8078846400334891
0.03376121333105164
-0.25525122257896116
0.2591497953007451
-0.8735100609929469
0.6859215032480097
0.3756407223764091
0.1682927782306427
0.5778989632254876
-0.10529626473524623
-0.0623333826393786
0.6234623523616181
-0.31168999549614074
-0.08677958087618842
-0.08452278605979324
0.837534974589822
-0.8433531547565774
0.5446650253846959
-0.7601770138232791
0.32838681942774706
-0.3258490679956254
-0.24443737196581594
0.9759150677035009
0.7752944309938725
-0.39315434635453617
0.8178160666057437
0.25110631485934465
0.6651472801071177
-0.4727850678441743
0.6075380009537237
-0.9828300795347555
0.13868973974090326
-0.17583845093093875
-0.4812624274253683
0.4006528085093375
0.0583379626375824
0.8097628411691544
-0.6574909627550771
-0.8845124590377493
0.9929449934267189
-0.5067045971866326
-0.5825526165499237
0.6952465213558692
0.551215770176601
-0.49254740727459034
-0.6254063275030839
-0.8518717464130139
-0.7056979204927267
0.5486325964362999
0.8802923280625317
0.04596598377084593
0.31943504172864645
-0.8673721703409278
0.9229189478555677
0.02925426125087749
-0.4697186853055426
-0.5310013278161916
-0.6054830950446213
0.24339060643128851
0.5960372482519973
-0.17813067636154534
-0.014042147631502688
0.31703323037991016
0.6501031721557133
-0.14816549542542634
-0.2556791557633109
-0.8483208296406965
-0.10949190248136365
0.12312149108370596
-0.9662389387272325
-0.9877303690664285
0.4180838023339084
0.2121023165304805
0.09621896072579483
0.19183280842681882
0.8847144393445945
0.6677065394321084
0.9258975357777228
0.8688775967652698
-0.17718324236874672
0.45123619547493554
-0.24848525062379823
0.6844550403744554
-0.11146624231115676
-0.5774608868635145
0.06291473869522712
-0.9634935435114231
-0.32504698917391317
0.9414487755160783
0.8237011185579155
0.12232160965840944
-0.7620117610932782
0.7178531241402188
-0.720867345012796
0.35563250645232447
0.0263923778208901
0.6707067129568318
0.59860026352368
-0.05692804598217993
-0.4813035142219324
0.7457543365692707
-0.5154173750975299
-0.8745711236565186
-0.4563013120899091
-0.6063120227454855
-0.1649449823402469
0.8723357286287525
0.9974549411018365
0.7249102860765795
-0.4360951937562616
-0.33527364133373294
0.4685506349742887
-0.765967026275655
0.7639850696537125
0.40760599021985056
0.14476186695997106
-0.5733095967753494
0.5400156757681269
0.4863774847500988
-0.7019582892280962
-0.3167982398496558
-0.9563806141978852
-0.486827673094661
-0.36890395224957406
-0.7419309312688782
0.5103588051167678
-0.5946635347849063
-0.18235892077092397
0.4412507594059589
0.4287180020730821
0.0964256762208815
0.6797629289816596
0.5966037100039023
-0.6364491273801824
-0.5992327373534445
-0.38037199686272505
-0.9551595297113149
-0.588404089045367
-0.6641519583878315
-0.8408793867517557
-0.42719958652907253
0.7842362804829115
-0.4475071534591548
-0.2601873492650797
0.727787444560569
-0.40723920790648505
-0.5690009564231677
-0.7030015895212636
0.9951801307066044
-0.4460387490834048
-0.1279024742549626
-0.45464471736513
0.45947243473021415
0.038977565075098086
-0.15518770780784763
-0.5998800980605317
0.6133572823077369
0.6558821863250928
-0.651004993878596
-0.4935033385247656
-0.39358230255388826
0.38657257133153333
-0.3914866168813069
0.4613439154399763
-0.5855563561940911
-0.8088815630409545
-0.96822496276539
0.9850121764936908
0.16234569976362745
-0.052210962674615446
-0.2405268852400544
-0.9624651503169146
-0.8519100416809524
0.6145637098056125
0.4651407146473723
0.6722020634667645
-0.007968397792145865
0.578007028327292
0.4823071177205107
0.28087558129259205
0.7754776088861794
-0.702032173257503
0.3027490185004076
-0.1907699218962038
-0.9657375933554035
-0.43835981431519144
0.023535598551017944
-0.49356440054437845
0.03757319751945443
-0.07189855849728088
0.4162675639332496
0.8226234950753826
0.9092149789689212
-0.725478362662898
0.9501147018467062
-0.8211941715255797
0.8379582596093211
0.7478162132382398
-0.6790410033676497
0.5077469248764603
0.8755655515014786
0.8805917171993671
-0.17784715003884544
0.7006140199610389
-0.3644535906260338
0.1478132399443528
-0.6069383862902362
-0.4173571296014571
-0.1793001615318386
0.8501236985125344
0.8857321004638579
0.5425011433666997
0.6169317577946323
-0.3854050328172558
-0.582015776392891
0.5629383529252008
-0.6486667094180407
0.6068891712520048
-0.5000115527114173
-0.6773341026221784
0.5587708351425442
0.41995093211843626
0.5571559980150089
-0.08971534006158643
0.8910853197892974
-0.6351558024295398
0.7521978045060043
0.9858196582504621
0.9824567377917643
-0.958829665891237
-0.4760639134553397
-0.9109839962741026
0.4326745030995851
-0.8715038755250706
0.11832081353135027
0.17306994946434506
0.5753682621576359
-0.9043695811711208
0.1859306344673779
0.3194224161114152
0.7783291911792687
0.932791216072383
0.38156597457565544
0.02869626848954754
-0.8343675105956074
-0.01759304365244252
-0.17462920029208973
0.4848101197806882
-0.14365217702563515
0.47750075045624896
-0.7287533756984192
-0.2462438923114052
0.08220357010496304
0.492307600337649
-0.12284829475193315
0.005481404930256728
-0.12335073984891887
-0.33202082826312407
-0.4167948649634956
-0.4632337655623897
0.4203371862230805
0.29693303118089065
0.2773451171640555
-0.37505463556804597
0.5831243762692153
0.13260664319847226
-0.8353828556072691
0.05677140694833871
0.720272599609936
-0.36292067954035967
-0.9450018606679711
0.5536731131327399
0.36060219941386196
-0.7127709595309519
0.6459879759441576
0.25411378260705475
0.06693572357664213
0.03079329284865784
-0.6999692104689612
-0.0842910810116344
-0.5457575756545938
0.01690711973827752
-0.6968458060803056
-0.4357855050424033
-0.8815250073757028
-0.6786061390364813
0.14004440525119555
-0.056549173052867774
0.059167786608426365
-0.4547119957820638
-0.06789771134999456
-0.6903192693496596
0.07144255792207965
0.8857717797310303
0.8588539078489996
-0.134087752014302
0.538147682525812
-0.4380887843818473
0.11941745062902953
0.4460506616528701
-0.9295663584023883
-0.6767201131325966
-0.21044396272958177
-0.06422224851351199
-0.47485381520798686
0.17776160407258468
-0.20882546576502725
-0.6435121197870592
-0.9300034374711414
-0.5544729044065821
0.11494639226857917
-0.459434676879793
0.17254686577184675
0.7793821036403352
-0.5769158161266039
-0.10926056469465029
-0.3433745230597409
-0.11261210675205136
-0.791902626564511
-0.15679252294317947
-0.700132943321865
-0.6481417057113119
-0.20529402973265243
0.34366841769873835
0.838648808428353
-0.8404598202045874
0.6459101172943962
-0.10263632161640324
0.7017733139846734
0.34098780179260735
0.6705417033722596
0.5686744026123953
0.31182560443469165
0.4628442578709546
0.5284521760454914
-0.3172228648941653
0.37321180903256446
-0.37505337923678916
0.2908209633556549
0.921314321325654
0.20846254047156387
0.08487454176022613
0.23689389710111608
0.005987476835710437
-0.09053493054028561
-0.33423518890412884
0.054791822404287815
-0.7715643747026812
-0.16213632499213348
0.6989177953353756
0.2628563447879433
-0.2882870691121675
0.8389479986499797
0.4109248302418922
-0.7206716631372345
0.4781349847099676
-0.574074100161927
-0.6142509955918911
0.24198227293966168
-0.8497865318165425
-0.8534441315695358
0.015393744600355808
-0.5843314277721798
0.425854578711661
0.36169250176601464
0.6984986488179543
0.8245435122982692
-0.6540517534401111
-0.25462375736202203
-0.04559695562991517
-0.39290542341049517
0.8119284593106821
-0.04132309874208562
-0.40907708814973565
-0.4841027797793367
0.8128392262183679
-0.8454218622692344
-0.4027121733010399
-0.02963242669483912
0.3858917465504168
-0.7612303455513545
-0.47061010805248626
-0.8803972080132916
0.46145406138955725
-0.8587102328810945
-0.1873021355235236
-0.5162698687758585
0.4328650326118686
0.7465410076730696
-0.3911059751393211
-0.08398735883531017
-0.45657996135819867
0.5842788161394215
-0.32450625878290573
-0.13571140184970232
-0.002673620058113446
-0.09824878826208128
0.9934114682798738
-0.7908507705243812
0.07838224041706776
-0.6827537185748789
0.8456394517931789
-0.6824122504246914
0.499583514572022
-0.10211853374863966
-0.4990913280078111
0.3746805552344996
-0.2911818338442491
0.20954756827346288
0.6894050517964363
0.5421902380152825
-0.059741027744881325
0.6544980439524171
-0.34668324850454413
0.04180682353673015
-0.5719790385848786
0.242152550316721
-0.286808842382009
-0.12792632584777275
-0.611900080583957
0.8312616159911956
0.01178440965652916
0.5418707009828443
-0.8734353354656648
-0.16334247485947384
-0.6197119395378494
0.9396572545605568
0.9464263155144934
0.4113947900380899
0.11752144319751623
-0.7434961665937199
0.4025627718845983
0.19516135129734224
0.8808818077269613
0.7422710801446204
0.8935286172756507
-0.13757986450734783
-0.1414544065002865
0.9981218356822907
0.5810338143794638
0.9088184470422114
-0.0743798807252658
0.4948802439801949
0.19232879569473949
0.38198109672269487
0.5826452702469986
0.05558062579777534
0.3876852909873416
0.5928808915338493
-0.8669499103057106
0.15187619193599233
-0.9353839698159663
0.23655859014495162
-0.223129256514343
-0.9621938516526265
0.22242969662467837
-0.19395752725880766
0.08124067818854996
-0.01925189467961852
0.8251704484370257
0.700895492362767
-0.3661341889182399
0.14821031493211878
0.4779440348753756
0.011896848292675122
-0.40609804790960324
-0.9295533549834016
0.6710868575235776
-0.3940583487406275
0.32535305869370945
-0.9772942718333664
-0.15141420704432074
0.8403223803862756
-0.6686856014352056
-0.8427474171657718
-0.37838868674986914
-0.9968681790226905
-0.6969150274391949
-0.2358686835834105
0.07497821478274536
0.40660671996843756
0.2563798979710781
0.6509627638483619
0.3038027564208612
-0.047190564195375595
0.44757311325462257
0.30590187810608493
0.06957658296741598
-0.05387768450807706
0.04610733071669837
0.24420588075072702
-0.22066754127428023
-0.055392076456181494
-0.6150917187536946
-0.26230679921933
0.8685287479207575
0.522367009245464
0.018845439256435448
-0.012299093684453588
-0.8922664782075893
0.9576029055178474
-0.208015983452986
-0.2740233074611742
-0.6448580721807142
0.0661808816641094
0.6475750975045194
0.21427008385913937
-0.15858669376129986
0.6680471775042574
0.010435960943281364
0.6622141926398262
-0.7997313251082818
-0.4960475215669873
-0.7704263757851748
-0.8055804546865624
0.14774081074468626
-0.18749873259121608
-0.21039070902593315
-0.3284727583725011
-0.035076072535947356
-0.7673730035961306
0.9062996803098453
-0.2464782561290264
-0.7858278952805708
-0.5211326984857751
0.11465188010916494
-0.189553584245159
-0.3006717034619504
-0.2609400192214699
0.8028578937599431
-0.5928257823867844
