0.8258831834544142
-0.6289018195955081
0.8023189937259763
-0.1744339863076323
-0.8009264689537716
0.029577056242489297
-0.16992834318082273
0.8350600309458107
-0.3780736786931371
0.2080838073098743
-0.019425988901562885
0.43053821074954945
0.31380356565834155
-0.8484996859491332
0.39266307923549637
-0.2545195069428554
-0.20783568112953432
-0.8742673123012472
0.8761914352022155
-0.29749616174405547
-0.08247796468671265
-0.6014177521340176
0.7179021864321784
-0.8509041242200777
-0.0013406779786406808
0.01180235204085922
0.17840595199555187
0.5719179609464153
0.6170187975057553
0.6969404672466362
0.2909025914958705
-0.3817456773470076
0.5052211145731786
-0.19485621982166212
-0.5722174579601988
-0.047987941506541176
0.47900773295618215
-0.2988145291076516
0.7545493693535812
-0.666995016205248
0.7865721921419715
0.7145446655608061
0.842102980897055
0.23208214119041948
0.9596801468378695
-0.5545457684442152
0.6179978307481448
0.7809902899220826
0.7406453464662546
0.9914059861401427
-0.5411741350766763
-0.5953121537858375
-0.42642566742137333
0.48968278050938707
0.332413701608967
-0.904844879433329
0.7397695907622386
-0.7359359183101124
0.1838057424214039
0.9595752450859543
-0.6436838498654596
0.8189305762016665
-0.00945536386629553
-0.5879136690103433
-0.6728871908554461
-0.05842952543296098
0.7842953577799685
-0.8228641976233346
-0.8990020396417406
0.25356932997991843
0.12668398500642308
-0.866205827404825
-0.5794718485312511
-0.3052575169526752
0.9288319462571377
-0.04578597744005242
0.1353561144268205
-0.3718517460490518
-0.842675309005045
-0.524250764743496
-0.7256088011619715
-0.47770332946336347
-0.1750529658638218
-0.20492402826024114
0.8288364954386308
-0.5032511640097579
-0.3771420459082555
-0.8160139261736397
0.8394664270388832
-0.5901221927393272
0.5314701602384078
0.10035173269653175
0.7465799662057069
-0.3773585503021182
-0.3494402123733287
-0.19591274844681994
-0.4507201698736025
-0.9102040013169088
0.9921811086915121
0.3867639054725476
0.980479756953627
-0.9899443026824235
-0.14075265863777453
0.3848594842155677
-0.3827450369570027
0.9092840761089256
0.26956718378971933
0.5704546605978564
-0.5387749771818984
0.7358782090274276
0.18587531704328497
-4.8526147175764756E-4
0.5350379643543678
-0.6849117833520422
0.3236677845087912
0.94672397871794
0.8380406048059297
0.33908921547351234
-0.2656003089953951
0.9671686987885604
0.6125929032879349
-0.03779597789475431
-0.5514648618157745
0.9989915092186528
0.7865978764712553
-0.974248993992707
0.8817492641467571
0.15746932120649615
-0.6804289707903217
-0.04542961677643009
-0.6055924675511828
0.6697945474991904
-0.7813126128946839
-0.5526392631126529
0.5295041340544446
0.26116730874187044
-0.15038435107193027
-0.774465732184167
-0.02876296720316618
0.22663475720371484
0.5123970167185165
0.31037988234256453
0.6167340009788145
-0.5905580737537159
0.37656543076334126
-0.4341018815377613
0.7954413966241918
-0.6445141162573571
0.9658175695818967
0.5747530460770442
-0.944258392138259
