-0.5315698365046286
0.5752091271416631
-0.07870239477751229
0.6914990066625439
0.434031470603393
0.717586963282661
-0.7016002522510585
-0.4959866693562247
0.02748577115556361
0.5042953576478051
-0.3086955296168803
0.7664856784119147
-0.2864055033838606
-0.8538665695842889
-0.6063960498807903
-0.18621999527135946
0.04975034305148518
-0.7535995934509521
-0.4328228600583144
0.7888781167141301
-0.2296056803989257
0.2537478459666338
0.4685923729995385
-0.618607194440163
0.2993004179936558
-0.9237873562405703
0.22153269212790394
0.7158171040198256
0.3093784240203068
-0.6698759520170297
-0.4706524370674099
-0.3233192213682887
0.6391371929137364
-0.9098428328694126
-0.05746214119485882
-0.8683881704813583
-0.8730948909204808
-0.5381172312778404
0.07918515001566173
0.7496301139392156
-0.2616430237684595
0.8157419721944945
-0.45796236865496387
-0.5891721782609971
0.739849680491296
0.10145152460331319
-0.43508038311269104
0.6095219807676753
-0.6955750217247352
0.8458373304947757
0.3199733723211504
-0.11993227898053349
-0.18912845656443666
0.718342904151756
-0.47103883858846607
0.1715435879801439
0.21581398407503904
0.08645072836342504
-0.3094028854730475
0.29952687495351715
-0.06165611974090268
-0.6409328718080622
0.09225780749974777
-0.4666090023857863
-0.09898815809419048
0.01862595383693999
0.2966093082913128
-0.16857983136420995
0.4853270892018271
0.4028122645276271
-0.1901087703257145
0.19393740944504434
-0.007079869333749933
-0.9220374108878746
-0.4313607579410359
-0.8474266100247145
-0.0780003393297517
0.9716832986289261
0.7429521072000076
-0.1467433935011051
0.5113130355901181
0.40293209099052363
-0.721758830898988
0.19245875930924594
-0.7911014965073273
0.6810098504174007
0.5837249288624153
0.03068198212427875
-0.009505925884628619
0.040613976047018996
-0.1752383793113068
0.6341277572730435
0.3383074102310395
-0.6125594796454186
0.1849409846070107
-0.36265105947751186
0.15646006722691186
0.2576798730687837
-0.5476250006871564
-0.23711304199302097
-0.2560767763525069
0.2934083282623636
-0.46832287399135475
-0.9723945453377627
-0.4315998798452376
-0.3327648890273074
0.9344467228561415
-0.8596818961554562
-0.836320731994328
0.11834097892510465
0.25367224580018544
-0.6518849949915169
0.4256001879356026
0.07615193049322877
-0.8713950725915445
-0.7998261917440777
-0.4561755569091843
0.2046839657251538
0.29908148889495134
0.6929662180365279
0.3521872364469083
-0.5347230657004642
-0.834138983286661
-0.05757129182988985
-0.9613905827990934
0.4067623721358047
0.46299334592577424
0.4212444842033536
-0.12374831817368181
0.06593909020429956
0.4001907730055356
-0.2455386509834856
-0.07920433008574346
-0.4024420539830218
0.9476274686901476
0.08424954774522964
-0.5355586825499914
-0.44815388568459436
0.0946800605024487
0.4454114128169202
0.578928000354576
-0.9035170784671087
0.9299833749587305
0.9824578401707103
-0.7366703757080388
0.6239555796318812
0.444826081543088
0.7370676729456205
-0.22192020134046397
0.49774858321214976
0.49272117873288357
0.901769845441631
0.09675127923337046
-0.4369118058817758
0.28876572805212697
0.2711460132107866
0.6131116767050988
0.15228929879144637
-0.7245219922864106
-0.9271462753873108
-0.8081173035751388
0.7334896463270224
-0.624415671376042
-0.9808291681713215
-0.08956527726890684
0.9015193619931572
-0.9668167734749304
-0.6147243365269344
-0.9499287130376495
0.5259066752687886
0.024794362565544015
0.8286788624166119
-0.7431137769097402
0.8104764954224535
0.6643753997376105
-0.865073362737524
-0.783995035607183
0.5209501727662325
-0.2685294299877141
0.10789826543729664
-0.3306515280519928
-0.298591926990148
0.219230576558614
0.4187235863240124
-0.17256969667973676
0.8291239768477379
-0.6144503206734435
0.46468458414429503
-0.4668169051918758
0.03173557996539267
-0.6229113472802055
-0.5351602702024882
0.8016728713187804
0.4681280958997953
-0.1839180948874901
-0.2871954925023177
-0.1781586544326752
0.4838196995880666
-0.3954806807444309
-0.9636686978800724
-0.40687012424541646
0.6675089640111393
-0.7993453922383593
0.15567324618926848
-0.20240679747979828
0.4092567049853899
0.5485619123807866
0.32646859018790986
-0.538403664198033
0.6979122913577271
0.5941807825656416
0.9750739103612787
-0.5064182824831525
0.6451499676742545
0.21750093788126534
-0.654061892680085
-0.6886539557037339
0.5535595763282097
-0.9312591815385012
0.2919383635272388
0.4617202750280782
-0.26118710832224146
0.017076546918195268
-0.4875743318537986
0.3874989434135283
0.7710062388206438
0.7036819049764986
-0.21994246841446863
-0.6890823253261806
-0.6821424249369585
0.9963215892534589
0.5799321686469676
0.35251387858912264
0.3727136163128233
-0.723015780460917
-0.23699661154697882
-0.8686960232604231
-0.3956193542104691
-0.30747580619314485
0.2800479769180204
-0.9481508696485936
-0.6016862678121953
-0.22505912775799986
-0.5783341006861751
0.2695218702391957
0.43397309150708874
0.45115467114321217
0.23571005357569375
0.7803222504702967
0.6437559485083686
-0.3254556048809887
-0.05028427614890685
-0.4291815303038631
0.17956333175566508
-0.30000439527844347
0.34966169724408513
-0.6091231808649298
-0.8869280271261915
-0.3158386496529595
-0.15001354209630002
0.7224841140565297
0.7228005059651288
-0.9085346299414285
0.8667378392077678
0.5980443336056493
0.6292608649794833
0.2477051229041256
-0.45481406042298644
0.06410831359031643
0.010189733415795876
0.3069414163897659
-0.1048165722805614
0.29157506154465995
-0.3389421066018401
-0.1163118813447288
0.9520100190967757
0.76175809497364
-0.3487553812172699
-0.2926091955282246
0.001558497866380737
-0.13142433549653787
-0.6816585915556883
0.2448317601767147
0.235376779553379
-0.12875114586341785
-0.42990280709735007
0.7653685291120984
0.7728453454707003
-0.5618706073192012
0.7956142396114425
-0.9957220784438381
0.7235782233176651
0.8181562521985237
0.7233668210924493
0.916254204535975
-0.7934161284472336
-0.2234404406714483
0.4468656649927252
-0.5539938158600615
0.3663783478677889
-0.08808606495590232
0.7469093180549553
-0.2968163752720885
-0.07331697820756311
0.6353641725215999
0.10306156018741008
-0.07500542993456638
-0.059052774470147895
-0.3114508771366251
0.3358225593052644
0.2368289617980428
-0.7709852284148082
-0.7650471533401555
-0.5677114510075163
-0.589343704388281
-0.11816860491409154
-0.7198850008457798
-0.21807598441813414
-0.427081581708904
-0.8288318586779011
-0.5406642366600058
-0.21460193691319907
-0.7810863062277782
0.07721395184217794
-0.40173572634201005
-0.9589502515078492
-0.1394323917997713
-0.3084406695580775
-0.36740733318817975
0.0607942181267469
-0.7198567151267778
-0.49507578260861806
-0.6365107407292281
0.4701100897066326
0.19876838627459836
0.3602018539876044
-0.026232588804696366
-0.48989083984235093
0.6668490268997878
0.23244236702127807
-0.581136174268243
0.7556153566052537
-0.16025945272618003
0.7672408162465152
0.6054184821754465
0.40678100012816465
0.5094479668842191
0.6367537537689802
0.5507685745701527
-0.2857199250105906
-0.3800447563479272
-0.7323948508486873
0.626931564445099
-0.4301217360472105
-0.488637762109019
0.840644477099135
-0.7085167874777161
0.6711321150618024
0.2180852299169953
-0.629275769391864
-0.9309370243649162
-0.39157723828146307
0.7889560985720949
-0.8546341933906176
0.9710680877012394
-0.27551672493639257
-0.69786814407865
0.8343867394455964
-0.33896921984707684
-0.9846937690465125
0.17826529208554254
-0.8468426268270628
0.13406911738050709
-0.07820851188272648
-0.678778650093461
-0.8162094356591489
0.668879415567379
0.8756175260194963
0.5756954865534551
0.5874754066621477
0.7776700361590301
-0.596126214219288
0.6881120885022642
-0.9019765119560217
0.3773106111881004
0.34209671332261204
0.521513958238633
-0.6881104496934238
0.12152649659952819
0.5085840878502728
0.47886082587160583
-0.8465432857528243
-0.23861435094913785
0.7760965559239879
-0.03851381136708465
0.03681136230459936
-0.3501395601316173
-0.895517468896813
-0.3095907056691183
0.538521188929423
-0.9292981591920559
0.3653433692231387
0.8139048686665082
-0.5552408089449754
-0.8011841316984156
-0.8800675019606701
0.3829329398443406
-0.8525560681711508
0.18878492758291388
-0.09594050280240363
0.996736996469499
0.5378942369542046
-0.8598690822333386
0.028850851283209966
-0.21717441211023458
0.5023687991109653
0.4237940857562337
0.5916120652038164
-0.3336574184987382
0.8598535228842654
0.6285724485667505
-0.6020534059443461
-0.4570896411753591
-0.024124449437763706
0.6827745764885609
0.9649633553973336
0.3701162868592103
-0.5225861090527724
-0.6323587092053518
0.3682626528695554
0.7763609001234462
-0.3735916633480072
-0.9784091848989251
0.16663542654598795
0.6674453055635001
-0.7496341842674168
-0.01865909843674385
0.36749888264964126
0.487350657084088
0.0945692218712404
0.593024838572898
0.4262695094912299
0.9223330800083549
0.6101093466898031
-0.3072232772315464
0.3808087762647523
-0.4262142069373076
-0.49358511122700266
-0.5261612133352545
0.06777996884448156
-0.07585178784763436
0.27390745564834074
-0.2626774564718377
-0.22404244462425815
-0.21853017573261058
0.3218624180489571
-0.3336669667620151
0.6622339690995935
-0.6879349914321027
0.3785092314288925
0.7892708987548906
0.7570229503815813
-0.6351421019763595
-0.5025122868252749
0.73944705176898
0.9771648491420992
-0.9193081280275497
-0.1986903986792128
-0.5820447138349878
0.08236888241596363
